{
    "w1" : [[ 2.41289228e-01,  3.49165767e-01, -2.59861052e-01,
            -6.54710829e-02, -2.03456238e-01,  1.53246541e-02,
            2.73790926e-01,  7.06453174e-02,  2.04152346e-01,
            3.56284082e-02,  2.67187595e-01, -3.92990619e-01,
            -6.31299540e-02, -3.41391027e-01, -2.42234573e-01,
            -8.22728351e-02,  2.26973295e-01,  1.25507591e-03,
            -1.56907681e-02,  9.90980864e-02, -2.60121793e-01,
            1.77682102e-01,  6.74159378e-02, -2.77635604e-01,
            1.94900826e-01,  3.28037441e-02,  1.34262845e-01,
            1.99324250e-01, -1.93331763e-01, -2.86768198e-01,
            -2.41691977e-01,  4.94890288e-02],
       [-1.58199847e-01,  8.41881037e-02, -8.28040838e-02,
         4.08836603e-02, -3.07062268e-01, -9.96118337e-02,
         3.01252097e-01, -2.01291546e-01, -2.85969704e-01,
         6.67604208e-02, -1.45555392e-01, -2.81266153e-01,
        -2.29158700e-01, -1.60257548e-01,  1.14534825e-01,
         3.06254059e-01, -5.53304851e-02, -3.36384445e-01,
         2.50788927e-02,  2.88240284e-01, -1.50654688e-01,
         3.27442974e-01, -3.21110725e-01,  1.22232407e-01,
        -2.29192704e-01,  1.80977315e-01, -4.25088406e-03,
        -1.64412022e-01, -2.22774386e-01,  2.98426777e-01,
        -2.82581270e-01,  2.46136218e-01],
       [-3.03074837e-01,  1.05130404e-01, -1.29709795e-01,
         1.83357835e-01, -3.10880423e-01, -1.26271293e-01,
        -4.34381336e-01, -2.22521216e-01, -1.17915176e-01,
        -7.94881880e-02,  1.29827440e-01,  1.59497887e-01,
        -3.27632308e-01,  1.10313654e-01,  2.36184746e-01,
        -2.20449612e-01, -2.82217652e-01, -4.35129628e-02,
         2.59258114e-02,  3.41102540e-01, -2.09561020e-01,
         1.79709077e-01, -2.01380745e-01,  2.35664651e-01,
        -2.23266691e-01, -2.86728412e-01, -1.22783460e-01,
         7.91205093e-02,  2.11972371e-01, -1.50144413e-01,
        -3.42770517e-02,  4.60804347e-03],
       [ 1.65729254e-01,  1.97197899e-01,  2.13993434e-02,
        -1.02557959e-02, -1.73900098e-01,  2.27824509e-01,
         3.55382524e-02,  5.63660748e-02, -1.25741199e-01,
         2.68366426e-01, -2.96319611e-02, -1.05984837e-01,
        -2.53528710e-02, -3.14302385e-01,  2.42125660e-01,
        -2.56213993e-01,  1.46611705e-01,  1.69713758e-02,
        -3.21823388e-01,  3.24303359e-01, -1.48926079e-02,
         1.11873485e-01,  1.02417320e-01,  7.60083646e-02,
         1.00830987e-01,  1.95690319e-01, -2.08332077e-01,
         1.77243948e-01, -1.55044079e-03,  1.41338229e-01,
         1.72253743e-01, -1.54491276e-01],
       [ 1.63009793e-01, -3.65225583e-01, -4.97552454e-02,
         4.20793831e-01,  2.69212484e-01, -1.07824259e-01,
         4.36786175e-01,  9.95060131e-02,  3.77433491e-03,
         2.34005183e-01,  2.96609759e-01,  4.19997759e-02,
        -7.00993836e-02, -2.04494596e-02,  2.55327553e-01,
         2.09002689e-01, -1.42004341e-01, -1.67822614e-01,
         4.67279404e-02, -4.46486101e-03,  7.45804906e-02,
         2.77524322e-01, -1.45452976e-01,  2.78824121e-01,
         1.61086798e-01,  1.82384133e-01, -1.43147530e-02,
        -2.97558814e-01, -1.91920102e-02,  1.40709758e-01,
        -2.28671774e-01, -8.49709362e-02],
       [-1.98737532e-01, -2.95050055e-01, -1.47471264e-01,
         2.80823678e-01,  3.23467073e-03, -2.73895800e-01,
         9.93531048e-02, -1.76078603e-01,  2.67741263e-01,
        -3.32826734e-01, -2.58120358e-01,  1.10781848e-01,
         2.03520268e-01, -2.25410059e-01, -9.74357128e-03,
         3.38658005e-01,  2.61774808e-01, -1.26750588e-01,
         2.18296312e-02, -2.86296695e-01,  2.29312003e-01,
         2.30432853e-01, -2.45666027e-01, -2.94886738e-01,
         8.33430663e-02,  1.94201678e-01,  4.51004118e-01,
         1.27676681e-01,  1.60750777e-01,  1.30392611e-01,
         3.53940040e-01,  1.60670325e-01],
       [-1.94253370e-01, -6.66279867e-02, -1.25613511e-02,
         3.29916716e-01, -4.69331369e-02,  1.60241246e-01,
         1.25307783e-01,  1.44421980e-01, -1.12406015e-01,
         2.86229461e-01,  4.44562227e-01, -8.88477117e-02,
        -1.77520707e-01, -3.43835413e-01, -1.70626804e-01,
        -7.39576966e-02,  2.79512107e-02, -3.16131055e-01,
        -1.11465171e-01, -1.61262348e-01, -1.60474628e-01,
        -2.52511919e-01,  1.67753458e-01, -1.80334389e-01,
         1.05219170e-01,  1.17525361e-01,  2.46910021e-01,
         1.53033108e-01,  2.80709594e-01, -2.01995626e-01,
        -2.27851927e-01,  2.97715098e-01],
       [ 4.59838398e-02,  9.91853625e-02,  3.89791846e-01,
        -1.01173863e-01,  1.47720277e-01,  2.77149081e-02,
        -3.52436304e-02, -1.49458554e-03,  3.78142834e-01,
        -9.91322473e-02,  7.29142949e-02,  4.25028890e-01,
        -3.12945306e-01,  4.66491312e-01, -1.17882006e-01,
        -1.31341055e-01, -8.97957385e-02,  2.63417065e-02,
         2.44125634e-01, -2.79497832e-01,  3.87638718e-01,
         1.04027092e-01, -5.83678186e-02,  3.55885625e-02,
        -1.36444911e-01, -2.57267743e-01, -3.87372635e-02,
        -2.78296262e-01,  2.82783151e-01,  4.65505421e-01,
        -1.43093392e-01,  1.94323793e-01],
       [ 1.13382608e-01, -2.10627355e-03,  4.49232280e-01,
         7.64998868e-02,  9.49537680e-02,  3.64291608e-01,
        -2.64061452e-03,  3.06265324e-01,  1.88499272e-01,
        -2.32110605e-01,  1.23802945e-01,  2.99349666e-01,
        -1.46064714e-01,  2.65306741e-01,  6.71972036e-02,
         3.83043326e-02, -1.22772932e-01,  1.45941116e-02,
         1.73726439e-01, -5.22219911e-02, -2.29641795e-03,
        -3.21447849e-04, -2.88758934e-01,  4.05837029e-01,
        -3.06535721e-01,  3.96435052e-01, -2.59828299e-01,
        -1.58046231e-01,  2.88035776e-02,  4.47710484e-01,
        -1.04916245e-01,  1.69126585e-01],
       [ 3.06523710e-01, -6.55972287e-02,  1.32035077e-01,
         8.81453902e-02, -1.09078720e-01, -1.10994846e-01,
        -2.54664689e-01, -2.14672327e-01,  2.56534904e-01,
        -1.36226311e-01, -3.00405532e-01,  1.42388090e-01,
         4.11996961e-01,  4.33783889e-01,  2.71091727e-03,
        -1.47272646e-01,  1.18619755e-01, -4.36642114e-03,
         1.93174139e-01, -1.20660678e-01, -1.91577017e-01,
        -6.18181229e-02, -7.72071406e-02, -9.48659033e-02,
        -1.00800201e-01,  2.78074592e-01,  4.86738309e-02,
         1.82372287e-01,  2.63247102e-01,  4.60981667e-01,
        -1.00100920e-01,  4.33755934e-01],
       [-2.44031325e-01, -3.17669772e-02, -1.78521514e-01,
         2.22717464e-01,  3.40662062e-01,  2.47270346e-01,
         2.10022300e-01,  2.14747891e-01,  9.81223136e-02,
         2.94847161e-01,  4.72421914e-01,  1.20149426e-01,
        -2.32561350e-01,  1.93508253e-01,  6.58526570e-02,
         3.72003496e-01, -1.81173638e-01,  1.04150802e-01,
         1.99371710e-01, -3.13342988e-01,  2.40453482e-02,
        -3.21844816e-01, -9.16717649e-02, -2.63961911e-01,
         1.39858246e-01,  2.83139586e-01,  1.15432598e-01,
        -2.76432782e-01, -2.29664654e-01, -3.35072398e-01,
        -1.27002239e-01, -5.80055378e-02],
       [ 1.15379989e-01, -4.30086493e-01,  4.89338040e-02,
        -2.04878841e-02, -1.34554982e-01,  6.08337857e-02,
         6.10930547e-02,  2.13290960e-01, -1.84354439e-01,
         1.04536474e-01, -3.23110580e-01, -1.36859164e-01,
         2.93237865e-02,  2.31833190e-01,  1.43052250e-01,
         6.06149845e-02, -3.44132006e-01,  1.14082180e-01,
         1.03436127e-01, -1.92883700e-01,  1.97320789e-01,
         9.91047323e-02,  4.31421399e-02,  1.82287619e-01,
         1.62786573e-01, -1.19939251e-02,  5.20150699e-02,
         8.89559239e-02, -9.00367200e-02, -3.99003267e-01,
         3.90123516e-01, -2.97174990e-01],
       [-3.57336663e-02, -1.70609936e-01,  6.56393096e-02,
         1.54370487e-01, -2.33342692e-01, -2.86984950e-01,
        -2.54795045e-01,  3.48100215e-01, -1.10488921e-01,
         1.01377673e-01,  1.03502400e-01,  1.63989931e-01,
         1.18846774e-01, -1.67472407e-01,  1.69639677e-01,
        -2.21000731e-01, -2.03814760e-01, -1.33676946e-01,
        -3.12297456e-02,  2.20391273e-01, -1.09524265e-01,
        -2.87308633e-01, -2.86919743e-01, -3.21185499e-01,
         6.43275380e-02,  2.77758151e-01, -3.30779739e-02,
         3.10146213e-02,  3.51999581e-01,  2.19301403e-01,
        -1.41590729e-01,  3.94015640e-01],
       [ 3.53757292e-02, -1.07292064e-01, -9.93936956e-02,
         1.42147718e-02,  6.56982660e-01,  7.22577944e-02,
         5.99853098e-01,  3.13430429e-01, -8.55891872e-03,
        -3.33370626e-01,  3.15697014e-01,  8.08825865e-02,
         2.30320878e-02, -1.86533391e-01, -8.46523345e-02,
         2.97637880e-01, -1.86916068e-01,  4.47410464e-01,
         2.07823411e-01, -2.55094141e-01,  1.00428537e-02,
         1.05691098e-01,  8.34286362e-02, -4.52218913e-02,
        -2.82073710e-02, -4.38268520e-02,  6.97938859e-01,
         2.23245531e-01, -3.49942267e-01, -8.24531764e-02,
         3.72995585e-01, -2.62577564e-01],
       [-3.68564516e-01,  5.69892645e-01,  5.85666895e-02,
        -2.13800967e-01, -2.77445138e-01,  1.32615522e-01,
        -4.25472498e-01,  1.99185207e-01, -2.50180364e-01,
        -2.69178659e-01, -5.32757565e-02, -1.31233394e-01,
         2.48691277e-03, -1.06167257e-01,  4.07752506e-02,
        -7.30831251e-02, -2.69493937e-01,  3.16203803e-01,
        -2.73181111e-01,  4.03780967e-01,  2.95713514e-01,
         1.79654881e-01,  3.14228266e-01, -1.07524276e-01,
         1.16991341e-01, -3.23839605e-01, -3.05371821e-01,
         3.46235514e-01, -2.11442560e-01, -4.67887014e-01,
        -2.31232241e-01, -5.78327058e-03],
       [-1.09573737e-01, -5.09648383e-01, -1.90860424e-02,
        -2.89309561e-01,  3.20245355e-01, -5.54867722e-02,
         3.23944122e-01,  1.30000981e-02, -2.74113327e-01,
         1.53944135e-01,  4.89821374e-01, -8.71772394e-02,
        -1.29558459e-01, -1.14079833e-01, -3.08101594e-01,
         4.01000053e-01, -1.09908879e-02,  2.05428347e-01,
         1.42610863e-01, -2.78758556e-01,  1.26468942e-01,
        -1.20818980e-01, -6.16512932e-02,  2.83062905e-01,
         7.83784837e-02, -3.35510671e-02,  7.05568641e-02,
         2.89041668e-01, -4.81791794e-02, -1.66655019e-01,
        -2.98303306e-01,  1.67808980e-01],
       [-3.39084081e-02,  1.15179561e-01, -2.83328086e-01,
         3.53239268e-01,  2.25536083e-03,  2.58426845e-01,
        -2.59502255e-03, -3.35548550e-01, -2.47823168e-02,
         2.18607813e-01, -1.31527394e-01, -4.63372767e-02,
        -2.85217822e-01, -5.04809916e-02, -2.74120539e-01,
        -6.87411278e-02,  2.87632812e-02, -1.02268614e-01,
        -2.24706158e-01,  1.14905708e-01, -3.60801369e-01,
        -2.39039361e-01, -1.50605515e-01, -2.37182692e-01,
         1.27800196e-01,  1.00917511e-01,  1.84303284e-01,
        -2.19872549e-01,  2.37811133e-01, -1.11124448e-01,
         1.95805818e-01,  2.67734677e-01],
       [-3.58018935e-01,  1.75071508e-01,  1.05710715e-01,
        -1.97751626e-01,  3.04522723e-01,  3.39865349e-02,
        -1.37697861e-01, -7.52881169e-02, -1.16022028e-01,
        -1.18203744e-01,  5.58003150e-02, -3.50936949e-01,
         1.49507476e-02, -2.26470396e-01, -2.77841479e-01,
         3.76310766e-01, -2.75389969e-01,  2.43490160e-01,
        -3.16004962e-01,  2.65254825e-01,  2.67952979e-02,
        -2.20384225e-01, -8.10967833e-02, -2.53227890e-01,
        -2.62192637e-01, -3.51039827e-01,  4.10870910e-01,
         1.96898043e-01, -3.85819018e-01, -1.54374048e-01,
        -2.88832724e-01, -3.50028545e-01],
       [ 6.62250593e-02, -1.05563611e-01,  3.78664821e-01,
        -1.03661209e-01, -1.29929349e-01, -3.17222506e-01,
         9.04899612e-02, -5.49715161e-02, -4.86208908e-02,
        -9.21956599e-02,  9.53063369e-02,  2.64175177e-01,
         1.24691986e-01,  3.56337279e-01,  1.49853781e-01,
         1.05451614e-01,  2.71940380e-01,  2.52573807e-02,
        -2.25646064e-01, -1.04546055e-01, -2.16491938e-01,
        -2.37471402e-01,  5.16619049e-02,  4.33440328e-01,
         2.87764490e-01,  1.25748338e-02,  2.04453468e-02,
         1.69205561e-01,  3.08899820e-01,  1.33757651e-01,
         3.58803682e-02,  4.34880793e-01],
       [-2.36960221e-02,  3.00332844e-01, -3.53965402e-01,
         4.20385212e-01,  3.95894200e-01, -2.75865406e-01,
         3.65217656e-01, -3.36932003e-01, -9.19857025e-02,
        -1.53352052e-01,  2.13803515e-01, -3.08577359e-01,
        -1.42230645e-01, -2.10066184e-01,  2.77448326e-01,
         2.65874416e-01, -5.86020239e-02, -1.10592939e-01,
         8.91159102e-02,  7.28352964e-02, -3.69036019e-01,
        -1.25970766e-01,  6.31747693e-02,  3.70495245e-02,
        -2.11409643e-01, -1.73034817e-01,  5.52795291e-01,
         1.94961593e-01, -1.22444309e-01, -1.38266802e-01,
         1.29643932e-01, -1.39943749e-01],
       [-1.73694804e-01,  3.32743913e-01, -2.73498684e-01,
         2.27953255e-01,  1.35656998e-01,  1.23015262e-01,
         3.03078741e-01,  6.87968731e-02, -1.75356552e-01,
         9.39230248e-02, -2.40526736e-01, -3.35921496e-01,
        -1.73806638e-01, -8.87519047e-02, -2.20584884e-01,
        -1.97783783e-01,  2.21922204e-01,  2.30943531e-01,
         1.51950151e-01,  3.65151852e-01,  8.39055404e-02,
        -1.07333370e-01, -1.98812217e-01,  2.40450352e-01,
        -2.63644099e-01,  7.48261660e-02, -4.27628517e-01,
         1.04863390e-01,  8.57809782e-02,  3.22065018e-02,
         2.48626262e-01, -9.79137868e-02]],
    "b1" : [[ 0.19271778, -0.01890664,  0.2861318 , -0.16940717,  0.01770422,
       -0.09879629, -0.03651078,  0.03789908,  0.17203172, -0.06233928,
       -0.13891466,  0.5400088 ,  0.13206926,  0.5039796 , -0.23139581,
        0.0223469 ,  0.02407706, -0.14972335,  0.01112254,  0.12084594,
       -0.01778235, -0.27051508,  0.04820419, -0.00427574, -0.06878803,
        0.24689142, -0.07557279, -0.20034893,  0.26484168,  0.43586245,
       -0.07523043,  0.35692614]],

    "w2" : [[-2.72974521e-01,  1.57913223e-01, -2.94753522e-01,
            -2.58641958e-01,  3.22221518e-01, -4.88084592e-02,
            1.62749127e-01,  1.66284982e-02,  3.95566493e-01,
            3.12594622e-01, -3.53320003e-01, -6.96140230e-02,
            -7.17691779e-02,  2.90262699e-01, -2.10393950e-01,
            -3.19213957e-01],
        [-1.30109116e-01,  5.61572731e-01, -2.68771380e-01,
            6.29677057e-01, -3.58101338e-01, -2.01298416e-01,
            -2.83429682e-01, -2.96097640e-02,  2.07645357e-01,
            -1.35614797e-01,  3.79006267e-02, -5.80523610e-02,
            -1.90673098e-01, -2.56504953e-01, -2.92916209e-01,
            -2.90648669e-01],
        [ 1.64246783e-01,  2.63944864e-02,  4.62343208e-02,
            -1.63248464e-01,  3.34539294e-01, -2.99854189e-01,
            7.29799643e-02,  1.21449783e-01, -8.10422227e-02,
            2.11480260e-01, -3.01331133e-01,  4.98561114e-02,
            -8.11151713e-02,  4.04707462e-01,  4.58975017e-01,
            -1.99310947e-02],
        [-2.97241807e-01, -7.87864327e-02,  3.44516248e-01,
            2.15876997e-01, -2.58593231e-01,  3.32216084e-01,
            1.78216144e-01, -1.34894073e-01, -1.26741290e-01,
            -2.41969272e-01,  9.01996568e-02, -2.52289355e-01,
            -2.54024774e-01,  2.32787188e-02, -8.48672539e-02,
            3.15407246e-01],
        [ 1.12042837e-01, -2.30412990e-01,  4.18357313e-01,
            -3.59161079e-01, -5.61837759e-03,  4.73290235e-01,
            2.60120362e-01,  2.51537468e-03, -1.11827180e-01,
            -2.07920417e-01,  4.25501019e-01, -1.10957935e-01,
            -1.86375991e-01, -1.61204532e-01, -1.72117755e-01,
            1.44845217e-01],
        [ 3.64804089e-01, -4.57908586e-02, -1.36073217e-01,
            2.89241821e-01,  2.82352358e-01,  1.93618238e-01,
            -3.17882240e-01,  3.00006986e-01, -7.11127967e-02,
            -2.68383753e-02, -2.94360459e-01,  2.06850827e-01,
            -2.16264442e-01,  1.27041176e-01,  1.45491987e-01,
            -1.03719290e-02],
        [ 1.06943637e-01, -1.57444060e-01,  6.74632370e-01,
            -1.87081590e-01,  1.01871468e-01, -1.66158173e-02,
            5.53334057e-01,  4.26390439e-01, -1.68454871e-01,
            -7.55582517e-03,  1.49504945e-03, -3.41576070e-01,
            1.67834938e-01, -2.05399126e-01, -2.64308780e-01,
            3.47991288e-01],
        [ 2.10284844e-01,  8.23614970e-02,  1.38203040e-01,
            -1.08940855e-01,  2.73653448e-01,  1.75652966e-01,
            -1.55461922e-01,  2.65994400e-01, -2.99908787e-01,
            7.73194954e-02,  5.00641838e-02,  3.83293748e-01,
            3.17708030e-02,  8.15026984e-02,  7.30833560e-02,
            -2.23351289e-02],
        [-1.00280814e-01, -2.03240350e-01, -1.83784291e-01,
            -1.23611286e-01,  4.53218669e-01, -3.55185419e-01,
            -5.04592210e-02, -6.14074431e-02, -2.01429233e-01,
            2.43716195e-01,  1.34033337e-01,  1.38527334e-01,
            1.70107588e-01,  4.01222020e-01, -1.50138140e-01,
            1.00787319e-01],
        [ 5.53702973e-02,  1.35245278e-01,  3.08468699e-01,
            -3.32644105e-01, -2.00090662e-01, -7.67731592e-02,
            -2.04513475e-01,  2.42953777e-01, -1.47167414e-01,
            -1.63836882e-01,  5.38960733e-02,  1.67462349e-01,
            1.97720274e-01, -2.76552200e-01, -2.50176758e-01,
            4.10058089e-02],
        [-9.66167897e-02, -3.94431084e-01,  2.43460730e-01,
            -1.82668850e-01, -1.78056434e-01,  4.63187248e-01,
            2.34867141e-01, -2.02703282e-01, -4.21603298e-04,
            -2.42275074e-01,  3.24154824e-01, -2.08697468e-01,
            -4.12225984e-02,  3.23872850e-03, -1.13116026e-01,
            2.73783267e-01],
        [ 2.94486046e-01, -1.20614409e-01,  1.84549302e-01,
            1.07094854e-01,  4.34118062e-01, -2.09062889e-01,
            -4.73335609e-02, -2.54962176e-01,  3.79516482e-01,
            5.09437263e-01, -3.73335123e-01,  2.66946793e-01,
            -2.45879576e-01,  2.82044560e-01,  3.12875897e-01,
            -3.02944154e-01],
        [ 2.10372731e-02, -3.18774551e-01,  2.93366522e-01,
            -2.21427619e-01,  3.87053080e-02, -2.31018648e-01,
            -6.39125556e-02, -1.01573654e-01, -1.85600743e-02,
            4.31114763e-01, -1.67361066e-01,  3.85514498e-01,
            7.72087276e-02, -6.87360615e-02,  1.43457025e-01,
            2.83340603e-01],
        [ 4.88126278e-01, -2.95516491e-01, -2.22167537e-01,
            -2.27047205e-01,  3.75963539e-01,  1.25041166e-02,
            -3.10976565e-01, -7.44727626e-02,  5.45801580e-01,
            2.43815780e-01, -2.82523036e-01, -7.49949142e-02,
            -7.83735365e-02,  1.41672298e-01,  2.87338436e-01,
            -2.68156290e-01],
        [-2.76319385e-01, -3.88961099e-02, -1.20824806e-01,
            6.66917488e-02, -1.45077586e-01, -2.78089195e-01,
            4.91209812e-02, -3.66286747e-02, -2.36459747e-01,
            -1.81294471e-01,  2.15753883e-01,  1.07956789e-01,
            -1.94996685e-01, -2.84591913e-01, -3.08445454e-01,
            1.45608606e-02],
        [ 4.22873050e-02, -1.82997301e-01,  4.28575546e-01,
            -2.39144713e-01, -8.07254016e-02,  2.43876874e-02,
            4.42492872e-01, -2.26105884e-01, -1.24765053e-01,
            -2.92743027e-01,  6.27140462e-01, -7.47680217e-02,
            -2.34285489e-01,  1.73865352e-02,  8.06749985e-02,
            6.23420551e-02],
        [ 1.47217274e-01, -3.26721132e-01,  2.45926455e-01,
            -3.59978020e-01,  2.96727002e-01, -9.36667919e-02,
            -4.43310626e-02, -2.36026719e-01,  1.89873427e-01,
            -9.85244010e-03,  2.85669923e-01, -2.39565894e-01,
            -1.42600045e-01, -1.71103254e-01,  2.81634778e-01,
            -1.61290899e-01],
        [-1.33043975e-01,  2.63736665e-01,  1.84785992e-01,
            1.55194491e-01, -1.82353303e-01, -1.95743889e-01,
            2.20320478e-01, -1.16056032e-01,  1.67975090e-02,
            -2.46343359e-01,  4.81239974e-01, -3.35330248e-01,
            -8.91473219e-02,  4.55689393e-02, -7.57191703e-02,
            1.20615244e-01],
        [ 2.06928104e-01,  1.75479621e-01,  1.29023507e-01,
            1.34407088e-01,  1.24312572e-01,  2.71353424e-01,
            3.01551759e-01,  1.75610214e-01,  9.09778327e-02,
            1.80647016e-01, -1.99674681e-01,  3.46823782e-01,
            -1.68406785e-01, -2.46241599e-01,  1.74817607e-01,
            -1.05834231e-01],
        [-3.75530757e-02,  5.16599596e-01, -2.71278411e-01,
            5.93980730e-01, -1.78805932e-01,  7.62315653e-03,
            -1.36839136e-01, -1.23268209e-01,  1.07727557e-01,
            -1.62700072e-01, -3.14788282e-01,  1.09426171e-01,
            -2.04421833e-01, -3.40245478e-02, -5.99258840e-02,
            -6.49404228e-02],
        [-3.16160023e-01,  6.88932538e-02, -3.00364643e-01,
            -9.61454958e-02, -1.40677840e-01, -9.94575098e-02,
            2.37107277e-01, -3.39713804e-02, -8.68328735e-02,
            3.08725476e-01,  1.36723638e-01,  3.41772854e-01,
            1.09603375e-01,  3.41211915e-01,  1.50166646e-01,
            -1.62038699e-01],
        [-5.90569759e-03, -2.97806412e-01, -3.10248375e-01,
            -2.64972508e-01, -6.11300655e-02,  6.47264272e-02,
            -8.41181949e-02,  3.79361659e-02, -3.54472518e-01,
            2.42220938e-01, -2.79492944e-01, -9.10577923e-02,
            -1.55171752e-01, -3.17226499e-01,  2.11497471e-01,
            2.73089230e-01],
        [-1.71310171e-01,  3.78340811e-01,  9.58788991e-02,
            1.15451224e-01, -2.63774931e-01,  9.53270271e-02,
            -8.52665305e-02,  2.29648575e-01,  2.86575019e-01,
            -3.81522030e-02, -1.15133062e-01, -1.72484323e-01,
            1.17205687e-01, -2.80568570e-01,  3.00150719e-02,
            -2.68873483e-01],
        [-2.76943207e-01, -2.40105867e-01, -2.68418372e-01,
            -3.67194742e-01, -2.59032808e-02, -3.55246633e-01,
            -2.04371765e-01,  1.50903061e-01, -7.20802099e-02,
            2.08448097e-01, -1.34146616e-01,  2.52205729e-01,
            -2.35530242e-01,  1.71191171e-01,  2.01233327e-01,
            2.19316363e-01],
        [ 2.12541431e-01,  1.37535051e-01,  1.88424826e-01,
            -3.29746723e-01, -1.65657789e-01, -2.49572083e-01,
            6.97535521e-04,  2.10627332e-01,  4.95970773e-04,
            1.31311730e-01, -2.99161077e-01, -2.97457486e-01,
            -2.51544952e-01,  1.64100111e-01,  3.02035242e-01,
            4.59351502e-02],
        [ 1.04716909e-03, -2.32982427e-01,  2.47547269e-01,
            -3.98427397e-01,  3.76669094e-02, -3.18464376e-02,
            -2.27003738e-01, -3.23172867e-01,  3.46423596e-01,
            2.42202580e-01,  2.24995300e-01,  1.66664377e-01,
            -1.44712120e-01, -1.60516366e-01,  2.82368660e-01,
            4.21646088e-01],
        [-2.98359752e-01, -1.71157926e-01,  3.94992739e-01,
            -2.44862959e-01, -1.23686410e-01,  6.55784369e-01,
            8.00991952e-02,  2.86703944e-01, -1.75474420e-01,
            -2.09780842e-01,  6.01963401e-01, -1.31927714e-01,
            -1.15549244e-01, -2.88178265e-01, -2.53403366e-01,
            1.84268296e-01],
        [-2.83452332e-01,  4.02729183e-01,  5.53326868e-03,
            2.57010162e-02, -5.45917898e-02,  4.58164692e-01,
            -1.16409235e-01, -1.21729709e-01, -1.31707788e-01,
            -2.73542017e-01, -5.97985201e-02,  9.41457674e-02,
            -1.38588607e-01, -2.16578588e-01,  6.35184571e-02,
            -1.88705578e-01],
        [ 2.81148925e-02,  3.65894623e-02, -1.46252513e-01,
            -4.12602395e-01,  3.98392916e-01,  1.27175182e-01,
            -1.46119758e-01, -1.50032509e-02,  3.35885346e-01,
            4.49534416e-01,  1.93885446e-01,  2.04538047e-01,
            -3.11452121e-01,  3.20549816e-01,  3.63688797e-01,
            1.38758868e-02],
        [ 5.55660546e-01, -2.54631817e-01,  7.39028603e-02,
            1.18482351e-01,  3.14536482e-01, -2.72582740e-01,
            -1.54548272e-01,  1.80365667e-01,  3.75833631e-01,
            4.66899276e-01, -5.24532283e-03,  3.22140336e-01,
            -1.58191279e-01,  5.15534937e-01,  2.16146365e-01,
            -2.43191764e-01],
        [ 3.26116413e-01,  5.95420115e-02,  1.26995400e-01,
            -1.53862223e-01, -2.23339453e-01,  2.81809509e-01,
            5.45195639e-01, -7.38667250e-02, -1.49097323e-01,
            -1.48309872e-01,  4.75368559e-01, -8.56652707e-02,
            1.98274702e-01, -2.21512377e-01, -5.36826514e-02,
            -1.54483050e-01],
        [-1.19274266e-01, -1.81847379e-01,  5.61755896e-02,
            -7.30113909e-02,  5.06318569e-01, -3.71326119e-01,
            -2.15621710e-01, -2.87824899e-01, -1.85443498e-02,
            4.28002566e-01, -1.21807322e-01, -2.43910909e-01,
            -6.26808703e-02,  4.04282361e-01,  5.59032679e-01,
            2.74674058e-01]],
    "b2" : [[ 0.16162463,  0.24000715, -0.19428125,  0.3137259 ,  0.05147075,
            0.09233389,  0.16323893, -0.02754664,  0.15614852,  0.16951203,
        -0.03682976,  0.08537873, -0.1328002 ,  0.20608824,  0.05414024,
        -0.0092664 ]],

    "w3" : [[ 0.59979   ,  0.16498677, -0.32941142],
        [-0.8703911 , -0.36429477,  0.25624013],
        [-0.26631552,  0.8421156 , -0.7314565 ],
        [-0.6475596 , -0.28217238,  0.59898096],
        [ 0.6271796 , -0.32684183, -0.7479088 ],
        [-0.939481  ,  0.4098945 , -0.28257748],
        [-0.41206834,  0.6058471 , -0.25146884],
        [-0.14301623,  0.0338882 , -0.38699633],
        [ 0.6404566 , -0.5280633 ,  0.24748915],
        [ 0.8070229 , -0.6248852 , -0.51875305],
        [-0.7593356 ,  0.58598244, -0.22730367],
        [ 0.42853978, -0.22935726,  0.04692787],
        [ 0.30585307,  0.03326548,  0.1357805 ],
        [ 0.6510447 , -0.3199118 , -0.32282633],
        [ 0.6814396 , -0.4111329 , -0.60128963],
        [ 0.2518194 ,  0.46041012, -0.5005533 ]],
    "b3" : [[-0.30032587, -0.21857925,  0.518905  ]]
}